{"vocab":["accuracy","achieved","admin","analysis","api","apis","app","application","appointments","authentication","aws","backend","basic","blog","bugs","building","built","cart","cases","cicd","completed","components","configured","connected","core","created","creating","dashboard","data","database","dataset","deployed","design","designed","designing","developing","documentation","ecommerce","edge","endpoints","figma","finalized","finished","firebase","fitness","fixed","frontend","gateway","gathered","have","hospital","implemented","initial","integrated","integration","iot","learning","login","machine","main","management","markdown","migrations","mobile","model","modules","native","navigation","nextjs","nodejs","optimized","page","patient","payment","platform","portfolio","presentation","profile","progress","project","ran","react","records","repository","researched","responsive","routing","schema","screens","sensors","sentiment","set","settings","shopping","state","structure","styling","successfully","system","temperature","tests","today","tracking","trained","twitter","unit","user","using","vercel","warehouse","web","website","wireframes","worked","wrote"],"idf":{"accuracy":2.234926444520231,"achieved":2.9759296462578115,"admin":1.8388510767619055,"analysis":1.742969305058623,"api":2.8134107167600364,"apis":2.7488721956224653,"app":1.7660917224794772,"application":2.7333680090865,"appointments":1.731605546408308,"authentication":2.9374633654300153,"aws":2.864704011147587,"backend":2.8134107167600364,"basic":2.900422093749666,"blog":1.8325814637483102,"bugs":2.9374633654300153,"building":1.1332037334377287,"built":2.900422093749666,"cart":2.7488721956224653,"cases":2.9374633654300153,"cicd":2.7333680090865,"completed":2.8302178350764176,"components":2.900422093749666,"configured":2.900422093749666,"connected":2.8134107167600364,"core":2.207274913189721,"created":2.396895772465287,"creating":1.742969305058623,"dashboard":0.99695863494161,"data":1.742969305058623,"database":2.2926347621408776,"dataset":2.7488721956224653,"deployed":2.111964733385396,"design":2.995732273553991,"designed":2.8302178350764176,"designing":1.8325814637483102,"developing":1.058430499035278,"documentation":2.8302178350764176,"ecommerce":1.8388510767619055,"edge":2.9374633654300153,"endpoints":2.8134107167600364,"figma":2.8302178350764176,"finalized":2.995732273553991,"finished":1.748699979767608,"firebase":1.7660917224794772,"fitness":1.7660917224794772,"fixed":2.9374633654300153,"frontend":2.8134107167600364,"gateway":2.9374633654300153,"gathered":2.7488721956224653,"have":2.047942874620465,"hospital":1.731605546408308,"implemented":2.7488721956224653,"initial":1.8578992717326002,"integrated":2.8134107167600364,"integration":2.882403588246988,"iot":1.8078888511579385,"learning":1.742969305058623,"login":2.9374633654300153,"machine":1.742969305058623,"main":2.8134107167600364,"management":1.4740332754278975,"markdown":1.8325814637483102,"migrations":3.170085660698769,"mobile":1.5511690043101247,"model":1.3394107752210402,"modules":2.882403588246988,"native":1.7660917224794772,"navigation":2.900422093749666,"nextjs":1.8325814637483102,"nodejs":1.8388510767619055,"optimized":2.864704011147587,"page":2.282782465697866,"patient":1.731605546408308,"payment":2.9374633654300153,"platform":1.8388510767619055,"portfolio":1.8325814637483102,"presentation":2.8302178350764176,"profile":2.995732273553991,"progress":1.783791299578878,"project":2.0955709236097197,"ran":3.170085660698769,"react":1.1116975282167652,"records":1.731605546408308,"repository":2.7333680090865,"researched":2.7488721956224653,"responsive":2.995732273553991,"routing":2.900422093749666,"schema":3.170085660698769,"screens":2.995732273553991,"sensors":1.8078888511579385,"sentiment":1.742969305058623,"set":1.7092582477163112,"settings":2.995732273553991,"shopping":2.7488721956224653,"state":2.7488721956224653,"structure":2.7333680090865,"styling":2.900422093749666,"successfully":2.047942874620465,"system":1.731605546408308,"temperature":1.8078888511579385,"tests":2.882403588246988,"today":1.6873994539038122,"tracking":1.0966142860054366,"trained":2.9759296462578115,"twitter":1.742969305058623,"unit":2.882403588246988,"user":2.995732273553991,"using":1.1457038962019603,"vercel":2.7333680090865,"warehouse":1.8078888511579385,"web":2.7333680090865,"website":1.8325814637483102,"wireframes":2.8302178350764176,"worked":1.789761466565382,"wrote":2.882403588246988},"weights":[22.046654210277715,6.606906459486537,-0.07861815631501486,-1.4670053323533216,-0.20176055617086922,-25.38616436049669,-2.27487064861552,27.894434526626554,-1.3489031584241953,-20.473444036427193,21.899184914316898,-2.067168854863512,-22.053485794831822,0.3260340424125987,15.567958965872062,-1.1708681003614099,-8.134173938330486,3.0336746333599462,15.567958965872062,27.894434526626554,33.410970502510004,-8.134173938330486,-22.053485794831822,-2.067168854863512,2.787585878867316,-11.099673039809845,-1.4670053323533216,-1.1015903714771456,-1.4670053323533216,-13.323819708926438,-25.38616436049669,37.6978012840661,23.9205654762349,-27.603300495511597,0.3260340424125987,-2.1878517125698593,33.410970502510004,-0.07861815631501486,15.567958965872062,-0.20176055617086922,-27.603300495511597,23.9205654762349,-2.334126500001489,-2.27487064861552,-2.27487064861552,15.567958965872062,-2.067168854863512,15.567958965872062,-25.38616436049669,-4.465391009223754,-1.3489031584241953,3.0336746333599462,-28.143428493544423,-0.20176055617086922,11.723852919059528,-1.7906833729438316,-1.4670053323533216,-20.473444036427193,-1.4670053323533216,-0.20176055617086922,0.478496488717587,0.3260340424125987,-16.09395402313703,10.38786718652012,12.085408675666754,11.723852919059528,-2.27487064861552,-22.053485794831822,0.3260340424125987,-0.07861815631501486,21.899184914316898,-14.892424293412855,-1.3489031584241953,15.567958965872062,-0.07861815631501486,0.3260340424125987,33.410970502510004,1.3359961620423548,1.7775780304590598,-1.0188483182640158,-16.09395402313703,-1.479486846917943,-1.3489031584241953,-33.59658948957197,-25.38616436049669,23.9205654762349,-22.053485794831822,-16.09395402313703,23.9205654762349,-1.7906833729438316,-1.4670053323533216,-15.478867984986957,1.3359961620423548,3.0336746333599462,3.0336746333599462,-33.59658948957197,-8.134173938330486,-4.465391009223754,-1.3489031584241953,-1.7906833729438316,23.447705838119056,-3.1415605763976515,-2.498706859743956,6.606906459486537,-1.4670053323533216,11.723852919059528,1.3359961620423548,0.15484847854786904,27.894434526626554,-1.7906833729438316,27.894434526626554,0.3260340424125987,-27.603300495511597,0.5203110334668627,11.723852919059528],"bias":51.26963913627544}